Language model created by QuickLM on Fri Oct 19 13:22:23 EDT 2018
Copyright (c) 1996-2010 Carnegie Mellon University and Alexander I. Rudnicky

The model is in standard ARPA format, designed by Doug Paul while he was at MITRE.

The code that was used to produce this language model is available in Open Source.
Please visit http://www.speech.cs.cmu.edu/tools/ for more information

The (fixed) discount mass is 0.5. The backoffs are computed using the ratio method.
This model based on a corpus of 30 sentences and 45 words

\data\
ngram 1=45
ngram 2=73
ngram 3=64

\1-grams:
-0.9208 </s> -0.3010
-0.9208 <s> -0.2455
-2.3979 ALARM -0.2455
-2.0969 BRIGHTNESS -0.2455
-2.0969 BROWSER -0.2455
-2.3979 CAMERAS -0.2455
-1.7959 CHECK -0.2905
-2.3979 CLOSE -0.2975
-2.0969 CONNECTED -0.2455
-2.0969 DECREASE -0.2940
-2.3979 EMAIL -0.2455
-2.3979 EVENTS -0.2455
-1.9208 HISTORY -0.2455
-2.0969 INCREASE -0.2940
-2.0969 IS -0.2975
-2.3979 ITUNES -0.2455
-2.0969 LIGHTS -0.2455
-2.0969 LOGS -0.2455
-2.3979 MEESEEKS -0.2455
-2.3979 MISTER -0.2993
-2.0969 MUSIC -0.2455
-2.3979 NEXT -0.2455
-2.3979 OFF -0.2975
-2.3979 ON -0.2975
-2.0969 OPEN -0.2958
-2.0969 PLAY -0.2958
-2.3979 PLAYER -0.2455
-2.3979 QUIT -0.2993
-2.3979 REMOVE -0.2993
-2.3979 SEARCH -0.2993
-2.0969 SEE -0.2923
-2.3979 SEND -0.2993
-2.0969 SET -0.2975
-1.9208 SHOW -0.2905
-2.3979 STOP -0.2975
-2.3979 THE -0.2993
-2.3979 TIMER -0.2455
-2.3979 TRAFFIC -0.2455
-2.3979 TRASH -0.2455
-2.0969 TURN -0.2975
-2.0969 VOLUME -0.2455
-2.3979 WEATHER -0.2455
-2.3979 WEB -0.2455
-2.3979 WHERE -0.2975
-2.3979 WHO -0.2975

\2-grams:
-1.1761 <s> CHECK 0.0000
-1.7782 <s> CLOSE 0.0000
-1.4771 <s> DECREASE 0.0000
-1.4771 <s> INCREASE 0.0000
-1.7782 <s> MISTER 0.0000
-1.4771 <s> OPEN 0.0000
-1.4771 <s> PLAY 0.0000
-1.7782 <s> QUIT 0.0000
-1.7782 <s> REMOVE 0.0000
-1.7782 <s> SEARCH 0.0000
-1.4771 <s> SEE 0.0000
-1.7782 <s> SEND 0.0000
-1.4771 <s> SET 0.0000
-1.3010 <s> SHOW 0.0000
-1.7782 <s> STOP 0.0000
-1.4771 <s> TURN 0.0000
-1.7782 <s> WHERE 0.0000
-1.7782 <s> WHO 0.0000
-0.3010 ALARM </s> -0.3010
-0.3010 BRIGHTNESS </s> -0.3010
-0.3010 BROWSER </s> -0.3010
-0.3010 CAMERAS </s> -0.3010
-0.9031 CHECK EVENTS 0.0000
-0.9031 CHECK HISTORY 0.0000
-0.9031 CHECK TRAFFIC 0.0000
-0.9031 CHECK WEATHER 0.0000
-0.3010 CLOSE BROWSER 0.0000
-0.3010 CONNECTED </s> -0.3010
-0.6021 DECREASE BRIGHTNESS 0.0000
-0.6021 DECREASE VOLUME 0.0000
-0.3010 EMAIL </s> -0.3010
-0.3010 EVENTS </s> -0.3010
-0.3010 HISTORY </s> -0.3010
-0.6021 INCREASE BRIGHTNESS 0.0000
-0.6021 INCREASE VOLUME 0.0000
-0.3010 IS CONNECTED 0.0000
-0.3010 ITUNES </s> -0.3010
-0.3010 LIGHTS </s> -0.3010
-0.3010 LOGS </s> -0.3010
-0.3010 MEESEEKS </s> -0.3010
-0.3010 MISTER MEESEEKS 0.0000
-0.3010 MUSIC </s> -0.3010
-0.3010 NEXT </s> -0.3010
-0.3010 OFF LIGHTS 0.0000
-0.3010 ON LIGHTS 0.0000
-0.6021 OPEN BROWSER 0.0000
-0.6021 OPEN PLAYER 0.0000
-0.6021 PLAY MUSIC 0.0000
-0.6021 PLAY NEXT 0.0000
-0.3010 PLAYER </s> -0.3010
-0.3010 QUIT ITUNES 0.0000
-0.3010 REMOVE TRASH 0.0000
-0.3010 SEARCH THE 0.0000
-0.6021 SEE HISTORY 0.0000
-0.6021 SEE LOGS 0.0000
-0.3010 SEND EMAIL 0.0000
-0.6021 SET ALARM 0.0000
-0.6021 SET TIMER 0.0000
-0.7782 SHOW CAMERAS 0.0000
-0.7782 SHOW HISTORY 0.0000
-0.7782 SHOW LOGS 0.0000
-0.3010 STOP MUSIC 0.0000
-0.3010 THE WEB 0.0000
-0.3010 TIMER </s> -0.3010
-0.3010 TRAFFIC </s> -0.3010
-0.3010 TRASH </s> -0.3010
-0.6021 TURN OFF 0.0000
-0.6021 TURN ON 0.0000
-0.3010 VOLUME </s> -0.3010
-0.3010 WEATHER </s> -0.3010
-0.3010 WEB </s> -0.3010
-0.3010 WHERE IS 0.0000
-0.3010 WHO IS 0.0000

\3-grams:
-0.9031 <s> CHECK EVENTS
-0.9031 <s> CHECK HISTORY
-0.9031 <s> CHECK TRAFFIC
-0.9031 <s> CHECK WEATHER
-0.3010 <s> CLOSE BROWSER
-0.6021 <s> DECREASE BRIGHTNESS
-0.6021 <s> DECREASE VOLUME
-0.6021 <s> INCREASE BRIGHTNESS
-0.6021 <s> INCREASE VOLUME
-0.3010 <s> MISTER MEESEEKS
-0.6021 <s> OPEN BROWSER
-0.6021 <s> OPEN PLAYER
-0.6021 <s> PLAY MUSIC
-0.6021 <s> PLAY NEXT
-0.3010 <s> QUIT ITUNES
-0.3010 <s> REMOVE TRASH
-0.3010 <s> SEARCH THE
-0.6021 <s> SEE HISTORY
-0.6021 <s> SEE LOGS
-0.3010 <s> SEND EMAIL
-0.6021 <s> SET ALARM
-0.6021 <s> SET TIMER
-0.7782 <s> SHOW CAMERAS
-0.7782 <s> SHOW HISTORY
-0.7782 <s> SHOW LOGS
-0.3010 <s> STOP MUSIC
-0.6021 <s> TURN OFF
-0.6021 <s> TURN ON
-0.3010 <s> WHERE IS
-0.3010 <s> WHO IS
-0.3010 CHECK EVENTS </s>
-0.3010 CHECK HISTORY </s>
-0.3010 CHECK TRAFFIC </s>
-0.3010 CHECK WEATHER </s>
-0.3010 CLOSE BROWSER </s>
-0.3010 DECREASE BRIGHTNESS </s>
-0.3010 DECREASE VOLUME </s>
-0.3010 INCREASE BRIGHTNESS </s>
-0.3010 INCREASE VOLUME </s>
-0.3010 IS CONNECTED </s>
-0.3010 MISTER MEESEEKS </s>
-0.3010 OFF LIGHTS </s>
-0.3010 ON LIGHTS </s>
-0.3010 OPEN BROWSER </s>
-0.3010 OPEN PLAYER </s>
-0.3010 PLAY MUSIC </s>
-0.3010 PLAY NEXT </s>
-0.3010 QUIT ITUNES </s>
-0.3010 REMOVE TRASH </s>
-0.3010 SEARCH THE WEB
-0.3010 SEE HISTORY </s>
-0.3010 SEE LOGS </s>
-0.3010 SEND EMAIL </s>
-0.3010 SET ALARM </s>
-0.3010 SET TIMER </s>
-0.3010 SHOW CAMERAS </s>
-0.3010 SHOW HISTORY </s>
-0.3010 SHOW LOGS </s>
-0.3010 STOP MUSIC </s>
-0.3010 THE WEB </s>
-0.3010 TURN OFF LIGHTS
-0.3010 TURN ON LIGHTS
-0.3010 WHERE IS CONNECTED
-0.3010 WHO IS CONNECTED

\end\
