Language model created by QuickLM on Mon Oct 22 08:51:28 EDT 2018
Copyright (c) 1996-2010 Carnegie Mellon University and Alexander I. Rudnicky

The model is in standard ARPA format, designed by Doug Paul while he was at MITRE.

The code that was used to produce this language model is available in Open Source.
Please visit http://www.speech.cs.cmu.edu/tools/ for more information

The (fixed) discount mass is 0.5. The backoffs are computed using the ratio method.
This model based on a corpus of 36 sentences and 53 words

\data\
ngram 1=53
ngram 2=87
ngram 3=75

\1-grams:
-0.9150 </s> -0.3010
-0.9150 <s> -0.2447
-2.4713 ALARM -0.2447
-2.1703 BRIGHTNESS -0.2447
-2.1703 BROWSER -0.2447
-2.4713 CAMERAS -0.2447
-1.8692 CHECK -0.2921
-2.4713 CLOSE -0.2981
-2.1703 CONNECTED -0.2447
-2.1703 DECREASE -0.2951
-2.4713 DEFAULT -0.2981
-2.4713 EMAIL -0.2447
-2.4713 EVENTS -0.2447
-1.9942 HISTORY -0.2447
-2.1703 INCREASE -0.2951
-2.1703 IS -0.2981
-2.4713 ITUNES -0.2447
-2.4713 JOKE -0.2447
-2.1703 LIGHTS -0.2447
-2.1703 LOGS -0.2447
-2.4713 MEESEEKS -0.2447
-2.4713 MISTER -0.2996
-2.1703 MODE -0.2447
-2.1703 MUSIC -0.2447
-2.4713 NEXT -0.2447
-2.4713 OFF -0.2981
-2.4713 ON -0.2981
-1.9942 OPEN -0.2951
-2.4713 PARTY -0.2447
-1.9942 PLAY -0.2951
-2.4713 PLAYER -0.2447
-2.4713 PREVIOUS -0.2447
-2.4713 QUIET -0.2981
-2.4713 QUIT -0.2996
-2.4713 REMOVE -0.2996
-2.4713 SEARCH -0.2996
-2.1703 SEE -0.2936
-2.4713 SEND -0.2996
-2.1703 SET -0.2981
-1.9942 SHOW -0.2921
-2.4713 START -0.2996
-2.4713 STOP -0.2981
-2.4713 TERMINAL -0.2447
-2.4713 THE -0.2996
-2.4713 TIMER -0.2447
-2.4713 TRAFFIC -0.2447
-2.4713 TRASH -0.2447
-2.1703 TURN -0.2981
-2.1703 VOLUME -0.2447
-2.4713 WEATHER -0.2447
-2.4713 WEB -0.2447
-2.4713 WHERE -0.2981
-2.4713 WHO -0.2981

\2-grams:
-1.2553 <s> CHECK 0.0000
-1.8573 <s> CLOSE 0.0000
-1.5563 <s> DECREASE 0.0000
-1.8573 <s> DEFAULT 0.0000
-1.5563 <s> INCREASE 0.0000
-1.8573 <s> JOKE 0.0000
-1.8573 <s> MISTER 0.0000
-1.3802 <s> OPEN 0.0000
-1.3802 <s> PLAY 0.0000
-1.8573 <s> QUIET 0.0000
-1.8573 <s> QUIT 0.0000
-1.8573 <s> REMOVE 0.0000
-1.8573 <s> SEARCH 0.0000
-1.5563 <s> SEE 0.0000
-1.8573 <s> SEND 0.0000
-1.5563 <s> SET 0.0000
-1.3802 <s> SHOW 0.0000
-1.8573 <s> START 0.0000
-1.8573 <s> STOP 0.0000
-1.5563 <s> TURN 0.0000
-1.8573 <s> WHERE 0.0000
-1.8573 <s> WHO 0.0000
-0.3010 ALARM </s> -0.3010
-0.3010 BRIGHTNESS </s> -0.3010
-0.3010 BROWSER </s> -0.3010
-0.3010 CAMERAS </s> -0.3010
-0.9031 CHECK EVENTS 0.0000
-0.9031 CHECK HISTORY 0.0000
-0.9031 CHECK TRAFFIC 0.0000
-0.9031 CHECK WEATHER 0.0000
-0.3010 CLOSE BROWSER 0.0000
-0.3010 CONNECTED </s> -0.3010
-0.6021 DECREASE BRIGHTNESS 0.0000
-0.6021 DECREASE VOLUME 0.0000
-0.3010 DEFAULT MODE 0.0000
-0.3010 EMAIL </s> -0.3010
-0.3010 EVENTS </s> -0.3010
-0.3010 HISTORY </s> -0.3010
-0.6021 INCREASE BRIGHTNESS 0.0000
-0.6021 INCREASE VOLUME 0.0000
-0.3010 IS CONNECTED 0.0000
-0.3010 ITUNES </s> -0.3010
-0.3010 JOKE </s> -0.3010
-0.3010 LIGHTS </s> -0.3010
-0.3010 LOGS </s> -0.3010
-0.3010 MEESEEKS </s> -0.3010
-0.3010 MISTER MEESEEKS 0.0000
-0.3010 MODE </s> -0.3010
-0.3010 MUSIC </s> -0.3010
-0.3010 NEXT </s> -0.3010
-0.3010 OFF LIGHTS 0.0000
-0.3010 ON LIGHTS 0.0000
-0.7782 OPEN BROWSER 0.0000
-0.7782 OPEN PLAYER 0.0000
-0.7782 OPEN TERMINAL 0.0000
-0.3010 PARTY </s> -0.3010
-0.7782 PLAY MUSIC 0.0000
-0.7782 PLAY NEXT 0.0000
-0.7782 PLAY PREVIOUS 0.0000
-0.3010 PLAYER </s> -0.3010
-0.3010 PREVIOUS </s> -0.3010
-0.3010 QUIET MODE 0.0000
-0.3010 QUIT ITUNES 0.0000
-0.3010 REMOVE TRASH 0.0000
-0.3010 SEARCH THE 0.0000
-0.6021 SEE HISTORY 0.0000
-0.6021 SEE LOGS 0.0000
-0.3010 SEND EMAIL 0.0000
-0.6021 SET ALARM 0.0000
-0.6021 SET TIMER 0.0000
-0.7782 SHOW CAMERAS 0.0000
-0.7782 SHOW HISTORY 0.0000
-0.7782 SHOW LOGS 0.0000
-0.3010 START PARTY 0.0000
-0.3010 STOP MUSIC 0.0000
-0.3010 TERMINAL </s> -0.3010
-0.3010 THE WEB 0.0000
-0.3010 TIMER </s> -0.3010
-0.3010 TRAFFIC </s> -0.3010
-0.3010 TRASH </s> -0.3010
-0.6021 TURN OFF 0.0000
-0.6021 TURN ON 0.0000
-0.3010 VOLUME </s> -0.3010
-0.3010 WEATHER </s> -0.3010
-0.3010 WEB </s> -0.3010
-0.3010 WHERE IS 0.0000
-0.3010 WHO IS 0.0000

\3-grams:
-0.9031 <s> CHECK EVENTS
-0.9031 <s> CHECK HISTORY
-0.9031 <s> CHECK TRAFFIC
-0.9031 <s> CHECK WEATHER
-0.3010 <s> CLOSE BROWSER
-0.6021 <s> DECREASE BRIGHTNESS
-0.6021 <s> DECREASE VOLUME
-0.3010 <s> DEFAULT MODE
-0.6021 <s> INCREASE BRIGHTNESS
-0.6021 <s> INCREASE VOLUME
-0.3010 <s> JOKE </s>
-0.3010 <s> MISTER MEESEEKS
-0.7782 <s> OPEN BROWSER
-0.7782 <s> OPEN PLAYER
-0.7782 <s> OPEN TERMINAL
-0.7782 <s> PLAY MUSIC
-0.7782 <s> PLAY NEXT
-0.7782 <s> PLAY PREVIOUS
-0.3010 <s> QUIET MODE
-0.3010 <s> QUIT ITUNES
-0.3010 <s> REMOVE TRASH
-0.3010 <s> SEARCH THE
-0.6021 <s> SEE HISTORY
-0.6021 <s> SEE LOGS
-0.3010 <s> SEND EMAIL
-0.6021 <s> SET ALARM
-0.6021 <s> SET TIMER
-0.7782 <s> SHOW CAMERAS
-0.7782 <s> SHOW HISTORY
-0.7782 <s> SHOW LOGS
-0.3010 <s> START PARTY
-0.3010 <s> STOP MUSIC
-0.6021 <s> TURN OFF
-0.6021 <s> TURN ON
-0.3010 <s> WHERE IS
-0.3010 <s> WHO IS
-0.3010 CHECK EVENTS </s>
-0.3010 CHECK HISTORY </s>
-0.3010 CHECK TRAFFIC </s>
-0.3010 CHECK WEATHER </s>
-0.3010 CLOSE BROWSER </s>
-0.3010 DECREASE BRIGHTNESS </s>
-0.3010 DECREASE VOLUME </s>
-0.3010 DEFAULT MODE </s>
-0.3010 INCREASE BRIGHTNESS </s>
-0.3010 INCREASE VOLUME </s>
-0.3010 IS CONNECTED </s>
-0.3010 MISTER MEESEEKS </s>
-0.3010 OFF LIGHTS </s>
-0.3010 ON LIGHTS </s>
-0.3010 OPEN BROWSER </s>
-0.3010 OPEN PLAYER </s>
-0.3010 OPEN TERMINAL </s>
-0.3010 PLAY MUSIC </s>
-0.3010 PLAY NEXT </s>
-0.3010 PLAY PREVIOUS </s>
-0.3010 QUIET MODE </s>
-0.3010 QUIT ITUNES </s>
-0.3010 REMOVE TRASH </s>
-0.3010 SEARCH THE WEB
-0.3010 SEE HISTORY </s>
-0.3010 SEE LOGS </s>
-0.3010 SEND EMAIL </s>
-0.3010 SET ALARM </s>
-0.3010 SET TIMER </s>
-0.3010 SHOW CAMERAS </s>
-0.3010 SHOW HISTORY </s>
-0.3010 SHOW LOGS </s>
-0.3010 START PARTY </s>
-0.3010 STOP MUSIC </s>
-0.3010 THE WEB </s>
-0.3010 TURN OFF LIGHTS
-0.3010 TURN ON LIGHTS
-0.3010 WHERE IS CONNECTED
-0.3010 WHO IS CONNECTED

\end\
