Language model created by QuickLM on Sat Oct 20 08:35:18 EDT 2018
Copyright (c) 1996-2010 Carnegie Mellon University and Alexander I. Rudnicky

The model is in standard ARPA format, designed by Doug Paul while he was at MITRE.

The code that was used to produce this language model is available in Open Source.
Please visit http://www.speech.cs.cmu.edu/tools/ for more information

The (fixed) discount mass is 0.5. The backoffs are computed using the ratio method.
This model based on a corpus of 32 sentences and 48 words

\data\
ngram 1=48
ngram 2=78
ngram 3=68

\1-grams:
-0.9197 </s> -0.3010
-0.9197 <s> -0.2454
-2.4249 ALARM -0.2454
-2.1239 BRIGHTNESS -0.2454
-2.1239 BROWSER -0.2454
-2.4249 CAMERAS -0.2454
-1.8228 CHECK -0.2911
-2.4249 CLOSE -0.2978
-2.1239 CONNECTED -0.2454
-2.1239 DECREASE -0.2944
-2.4249 DEFAULT -0.2978
-2.4249 EMAIL -0.2454
-2.4249 EVENTS -0.2454
-1.9478 HISTORY -0.2454
-2.1239 INCREASE -0.2944
-2.1239 IS -0.2978
-2.4249 ITUNES -0.2454
-2.1239 LIGHTS -0.2454
-2.1239 LOGS -0.2454
-2.4249 MEESEEKS -0.2454
-2.4249 MISTER -0.2994
-2.1239 MODE -0.2454
-2.1239 MUSIC -0.2454
-2.4249 NEXT -0.2454
-2.4249 OFF -0.2978
-2.4249 ON -0.2978
-2.1239 OPEN -0.2961
-2.1239 PLAY -0.2961
-2.4249 PLAYER -0.2454
-2.4249 QUIET -0.2978
-2.4249 QUIT -0.2994
-2.4249 REMOVE -0.2994
-2.4249 SEARCH -0.2994
-2.1239 SEE -0.2928
-2.4249 SEND -0.2994
-2.1239 SET -0.2978
-1.9478 SHOW -0.2911
-2.4249 STOP -0.2978
-2.4249 THE -0.2994
-2.4249 TIMER -0.2454
-2.4249 TRAFFIC -0.2454
-2.4249 TRASH -0.2454
-2.1239 TURN -0.2978
-2.1239 VOLUME -0.2454
-2.4249 WEATHER -0.2454
-2.4249 WEB -0.2454
-2.4249 WHERE -0.2978
-2.4249 WHO -0.2978

\2-grams:
-1.2041 <s> CHECK 0.0000
-1.8062 <s> CLOSE 0.0000
-1.5051 <s> DECREASE 0.0000
-1.8062 <s> DEFAULT 0.0000
-1.5051 <s> INCREASE 0.0000
-1.8062 <s> MISTER 0.0000
-1.5051 <s> OPEN 0.0000
-1.5051 <s> PLAY 0.0000
-1.8062 <s> QUIET 0.0000
-1.8062 <s> QUIT 0.0000
-1.8062 <s> REMOVE 0.0000
-1.8062 <s> SEARCH 0.0000
-1.5051 <s> SEE 0.0000
-1.8062 <s> SEND 0.0000
-1.5051 <s> SET 0.0000
-1.3291 <s> SHOW 0.0000
-1.8062 <s> STOP 0.0000
-1.5051 <s> TURN 0.0000
-1.8062 <s> WHERE 0.0000
-1.8062 <s> WHO 0.0000
-0.3010 ALARM </s> -0.3010
-0.3010 BRIGHTNESS </s> -0.3010
-0.3010 BROWSER </s> -0.3010
-0.3010 CAMERAS </s> -0.3010
-0.9031 CHECK EVENTS 0.0000
-0.9031 CHECK HISTORY 0.0000
-0.9031 CHECK TRAFFIC 0.0000
-0.9031 CHECK WEATHER 0.0000
-0.3010 CLOSE BROWSER 0.0000
-0.3010 CONNECTED </s> -0.3010
-0.6021 DECREASE BRIGHTNESS 0.0000
-0.6021 DECREASE VOLUME 0.0000
-0.3010 DEFAULT MODE 0.0000
-0.3010 EMAIL </s> -0.3010
-0.3010 EVENTS </s> -0.3010
-0.3010 HISTORY </s> -0.3010
-0.6021 INCREASE BRIGHTNESS 0.0000
-0.6021 INCREASE VOLUME 0.0000
-0.3010 IS CONNECTED 0.0000
-0.3010 ITUNES </s> -0.3010
-0.3010 LIGHTS </s> -0.3010
-0.3010 LOGS </s> -0.3010
-0.3010 MEESEEKS </s> -0.3010
-0.3010 MISTER MEESEEKS 0.0000
-0.3010 MODE </s> -0.3010
-0.3010 MUSIC </s> -0.3010
-0.3010 NEXT </s> -0.3010
-0.3010 OFF LIGHTS 0.0000
-0.3010 ON LIGHTS 0.0000
-0.6021 OPEN BROWSER 0.0000
-0.6021 OPEN PLAYER 0.0000
-0.6021 PLAY MUSIC 0.0000
-0.6021 PLAY NEXT 0.0000
-0.3010 PLAYER </s> -0.3010
-0.3010 QUIET MODE 0.0000
-0.3010 QUIT ITUNES 0.0000
-0.3010 REMOVE TRASH 0.0000
-0.3010 SEARCH THE 0.0000
-0.6021 SEE HISTORY 0.0000
-0.6021 SEE LOGS 0.0000
-0.3010 SEND EMAIL 0.0000
-0.6021 SET ALARM 0.0000
-0.6021 SET TIMER 0.0000
-0.7782 SHOW CAMERAS 0.0000
-0.7782 SHOW HISTORY 0.0000
-0.7782 SHOW LOGS 0.0000
-0.3010 STOP MUSIC 0.0000
-0.3010 THE WEB 0.0000
-0.3010 TIMER </s> -0.3010
-0.3010 TRAFFIC </s> -0.3010
-0.3010 TRASH </s> -0.3010
-0.6021 TURN OFF 0.0000
-0.6021 TURN ON 0.0000
-0.3010 VOLUME </s> -0.3010
-0.3010 WEATHER </s> -0.3010
-0.3010 WEB </s> -0.3010
-0.3010 WHERE IS 0.0000
-0.3010 WHO IS 0.0000

\3-grams:
-0.9031 <s> CHECK EVENTS
-0.9031 <s> CHECK HISTORY
-0.9031 <s> CHECK TRAFFIC
-0.9031 <s> CHECK WEATHER
-0.3010 <s> CLOSE BROWSER
-0.6021 <s> DECREASE BRIGHTNESS
-0.6021 <s> DECREASE VOLUME
-0.3010 <s> DEFAULT MODE
-0.6021 <s> INCREASE BRIGHTNESS
-0.6021 <s> INCREASE VOLUME
-0.3010 <s> MISTER MEESEEKS
-0.6021 <s> OPEN BROWSER
-0.6021 <s> OPEN PLAYER
-0.6021 <s> PLAY MUSIC
-0.6021 <s> PLAY NEXT
-0.3010 <s> QUIET MODE
-0.3010 <s> QUIT ITUNES
-0.3010 <s> REMOVE TRASH
-0.3010 <s> SEARCH THE
-0.6021 <s> SEE HISTORY
-0.6021 <s> SEE LOGS
-0.3010 <s> SEND EMAIL
-0.6021 <s> SET ALARM
-0.6021 <s> SET TIMER
-0.7782 <s> SHOW CAMERAS
-0.7782 <s> SHOW HISTORY
-0.7782 <s> SHOW LOGS
-0.3010 <s> STOP MUSIC
-0.6021 <s> TURN OFF
-0.6021 <s> TURN ON
-0.3010 <s> WHERE IS
-0.3010 <s> WHO IS
-0.3010 CHECK EVENTS </s>
-0.3010 CHECK HISTORY </s>
-0.3010 CHECK TRAFFIC </s>
-0.3010 CHECK WEATHER </s>
-0.3010 CLOSE BROWSER </s>
-0.3010 DECREASE BRIGHTNESS </s>
-0.3010 DECREASE VOLUME </s>
-0.3010 DEFAULT MODE </s>
-0.3010 INCREASE BRIGHTNESS </s>
-0.3010 INCREASE VOLUME </s>
-0.3010 IS CONNECTED </s>
-0.3010 MISTER MEESEEKS </s>
-0.3010 OFF LIGHTS </s>
-0.3010 ON LIGHTS </s>
-0.3010 OPEN BROWSER </s>
-0.3010 OPEN PLAYER </s>
-0.3010 PLAY MUSIC </s>
-0.3010 PLAY NEXT </s>
-0.3010 QUIET MODE </s>
-0.3010 QUIT ITUNES </s>
-0.3010 REMOVE TRASH </s>
-0.3010 SEARCH THE WEB
-0.3010 SEE HISTORY </s>
-0.3010 SEE LOGS </s>
-0.3010 SEND EMAIL </s>
-0.3010 SET ALARM </s>
-0.3010 SET TIMER </s>
-0.3010 SHOW CAMERAS </s>
-0.3010 SHOW HISTORY </s>
-0.3010 SHOW LOGS </s>
-0.3010 STOP MUSIC </s>
-0.3010 THE WEB </s>
-0.3010 TURN OFF LIGHTS
-0.3010 TURN ON LIGHTS
-0.3010 WHERE IS CONNECTED
-0.3010 WHO IS CONNECTED

\end\
