Language model created by QuickLM on Tue Sep 18 08:58:09 EDT 2018
Copyright (c) 1996-2010 Carnegie Mellon University and Alexander I. Rudnicky

The model is in standard ARPA format, designed by Doug Paul while he was at MITRE.

The code that was used to produce this language model is available in Open Source.
Please visit http://www.speech.cs.cmu.edu/tools/ for more information

The (fixed) discount mass is 0.5. The backoffs are computed using the ratio method.
This model based on a corpus of 25 sentences and 40 words

\data\
ngram 1=40
ngram 2=63
ngram 3=55

\1-grams:
-0.9325 </s> -0.3010
-0.9325 <s> -0.2471
-2.3304 ALARM -0.2471
-2.0294 AN -0.2970
-2.0294 BRIGHTNESS -0.2471
-2.0294 BROWSER -0.2471
-1.8533 CHECK -0.2908
-2.3304 CLOSE -0.2970
-2.0294 CONNECTED -0.2471
-2.0294 DECREASE -0.2928
-2.3304 EMAIL -0.2471
-2.3304 EVENTS -0.2471
-2.3304 FOR -0.2471
-1.8533 HISTORY -0.2471
-2.0294 INCREASE -0.2928
-2.0294 IS -0.2970
-2.0294 LIGHTS -0.2471
-2.0294 LOGS -0.2471
-2.3304 MEESEEKS -0.2471
-2.3304 MISTER -0.2990
-2.3304 MUSIC -0.2471
-2.3304 OFF -0.2970
-2.3304 ON -0.2970
-2.0294 OPEN -0.2949
-2.3304 PLAY -0.2990
-2.3304 PLAYER -0.2471
-2.3304 SEARCH -0.2990
-2.0294 SEE -0.2908
-2.3304 SEND -0.2990
-2.0294 SET -0.2970
-2.3304 SHERLOCK -0.2471
-2.0294 SHOW -0.2908
-2.3304 THE -0.2990
-2.3304 TIMER -0.2471
-2.0294 TURN -0.2970
-2.0294 VOLUME -0.2471
-2.3304 WEATHER -0.2471
-2.3304 WEB -0.2990
-2.3304 WHERE -0.2970
-2.3304 WHO -0.2970

\2-grams:
-1.2218 <s> CHECK 0.0000
-1.6990 <s> CLOSE 0.0000
-1.3979 <s> DECREASE 0.0000
-1.3979 <s> INCREASE 0.0000
-1.6990 <s> MISTER 0.0000
-1.3979 <s> OPEN 0.0000
-1.6990 <s> PLAY 0.0000
-1.6990 <s> SEARCH 0.0000
-1.3979 <s> SEE 0.0000
-1.6990 <s> SEND 0.0000
-1.3979 <s> SET 0.0000
-1.6990 <s> SHERLOCK 0.0000
-1.3979 <s> SHOW 0.0000
-1.3979 <s> TURN 0.0000
-1.6990 <s> WHERE 0.0000
-1.6990 <s> WHO 0.0000
-0.3010 ALARM </s> -0.3010
-0.6021 AN ALARM 0.0000
-0.6021 AN TIMER 0.0000
-0.3010 BRIGHTNESS </s> -0.3010
-0.3010 BROWSER </s> -0.3010
-0.7782 CHECK EVENTS 0.0000
-0.7782 CHECK HISTORY 0.0000
-0.7782 CHECK WEATHER 0.0000
-0.3010 CLOSE BROWSER 0.0000
-0.3010 CONNECTED </s> -0.3010
-0.6021 DECREASE BRIGHTNESS 0.0000
-0.6021 DECREASE VOLUME 0.0000
-0.3010 EMAIL </s> -0.3010
-0.3010 EVENTS </s> -0.3010
-0.3010 FOR </s> -0.3010
-0.3010 HISTORY </s> -0.3010
-0.6021 INCREASE BRIGHTNESS 0.0000
-0.6021 INCREASE VOLUME 0.0000
-0.3010 IS CONNECTED 0.0000
-0.3010 LIGHTS </s> -0.3010
-0.3010 LOGS </s> -0.3010
-0.3010 MEESEEKS </s> -0.3010
-0.3010 MISTER MEESEEKS 0.0000
-0.3010 MUSIC </s> -0.3010
-0.3010 OFF LIGHTS 0.0000
-0.3010 ON LIGHTS 0.0000
-0.6021 OPEN BROWSER 0.0000
-0.6021 OPEN PLAYER 0.0000
-0.3010 PLAY MUSIC 0.0000
-0.3010 PLAYER </s> -0.3010
-0.3010 SEARCH THE 0.0000
-0.6021 SEE HISTORY 0.0000
-0.6021 SEE LOGS 0.0000
-0.3010 SEND EMAIL 0.0000
-0.3010 SET AN 0.0000
-0.3010 SHERLOCK </s> -0.3010
-0.6021 SHOW HISTORY 0.0000
-0.6021 SHOW LOGS 0.0000
-0.3010 THE WEB 0.0000
-0.3010 TIMER </s> -0.3010
-0.6021 TURN OFF 0.0000
-0.6021 TURN ON 0.0000
-0.3010 VOLUME </s> -0.3010
-0.3010 WEATHER </s> -0.3010
-0.3010 WEB FOR 0.0000
-0.3010 WHERE IS 0.0000
-0.3010 WHO IS 0.0000

\3-grams:
-0.7782 <s> CHECK EVENTS
-0.7782 <s> CHECK HISTORY
-0.7782 <s> CHECK WEATHER
-0.3010 <s> CLOSE BROWSER
-0.6021 <s> DECREASE BRIGHTNESS
-0.6021 <s> DECREASE VOLUME
-0.6021 <s> INCREASE BRIGHTNESS
-0.6021 <s> INCREASE VOLUME
-0.3010 <s> MISTER MEESEEKS
-0.6021 <s> OPEN BROWSER
-0.6021 <s> OPEN PLAYER
-0.3010 <s> PLAY MUSIC
-0.3010 <s> SEARCH THE
-0.6021 <s> SEE HISTORY
-0.6021 <s> SEE LOGS
-0.3010 <s> SEND EMAIL
-0.3010 <s> SET AN
-0.3010 <s> SHERLOCK </s>
-0.6021 <s> SHOW HISTORY
-0.6021 <s> SHOW LOGS
-0.6021 <s> TURN OFF
-0.6021 <s> TURN ON
-0.3010 <s> WHERE IS
-0.3010 <s> WHO IS
-0.3010 AN ALARM </s>
-0.3010 AN TIMER </s>
-0.3010 CHECK EVENTS </s>
-0.3010 CHECK HISTORY </s>
-0.3010 CHECK WEATHER </s>
-0.3010 CLOSE BROWSER </s>
-0.3010 DECREASE BRIGHTNESS </s>
-0.3010 DECREASE VOLUME </s>
-0.3010 INCREASE BRIGHTNESS </s>
-0.3010 INCREASE VOLUME </s>
-0.3010 IS CONNECTED </s>
-0.3010 MISTER MEESEEKS </s>
-0.3010 OFF LIGHTS </s>
-0.3010 ON LIGHTS </s>
-0.3010 OPEN BROWSER </s>
-0.3010 OPEN PLAYER </s>
-0.3010 PLAY MUSIC </s>
-0.3010 SEARCH THE WEB
-0.3010 SEE HISTORY </s>
-0.3010 SEE LOGS </s>
-0.3010 SEND EMAIL </s>
-0.6021 SET AN ALARM
-0.6021 SET AN TIMER
-0.3010 SHOW HISTORY </s>
-0.3010 SHOW LOGS </s>
-0.3010 THE WEB FOR
-0.3010 TURN OFF LIGHTS
-0.3010 TURN ON LIGHTS
-0.3010 WEB FOR </s>
-0.3010 WHERE IS CONNECTED
-0.3010 WHO IS CONNECTED

\end\
